svm_type nu_svr
kernel_type rbf
gamma 0.03
nr_class 2
total_sv 273
rho -1.19163
SV
-3 1:1 2:1 3:1 4:1 5:0.62088963 6:0.99999731 7:0.99999082 8:0.99998948 9:0.99998772 
-3 1:1 2:1 3:1 4:1 5:0.65543528 6:0.99999923 7:0.99999016 8:0.99999026 9:0.99999075 
1.972919286254307 1:1 2:1 3:1 4:1 5:0.085951542 6:0.99999967 7:0.99999935 8:0.99999874 9:0.9999986 
3 1:1 2:1 3:1 4:1 5:0.029394136 6:0.99999927 7:0.99999882 8:0.999998 9:0.99999729 
3 1:1 2:1 3:1 4:1 5:0.038832002 6:0.99999999 7:0.99998553 8:0.99998771 9:0.99998768 
3 1:1 2:1 3:1 4:1 5:0.064303123 6:0.9999973 7:0.99999764 8:0.99999638 9:0.99999498 
-3 1:1 2:1 3:1 4:1 5:0.6185964 6:0.99999966 7:0.99999961 8:0.99999958 9:0.99999946 
3 1:1 2:1 3:1 4:1 5:0.082560262 6:0.99999978 7:1 8:0.99999991 9:0.99999945 
3 1:1 2:1 3:1 4:1 5:0.069072755 6:0.99999876 7:0.99999779 8:0.99999696 9:0.99999673 
3 1:1 2:1 3:1 4:1 5:0.024838178 6:0.99999421 7:0.99999022 8:0.99998517 9:0.9999836 
-3 1:1 2:1 3:1 4:1 5:0.61535279 6:0.99999786 7:0.99999762 8:0.99999626 9:0.99999605 
3 1:1 2:1 3:1 4:1 6:0.99998126 7:0.99998294 8:0.99997895 9:0.99997406 
-3 1:1 2:1 3:1 4:1 5:1 6:0.99999962 7:0.99999872 8:0.99999756 9:0.99999726 
-3 1:0.76851752 2:0.56396801 3:0.46727603 4:0.57366579 5:0.62088963 6:0.28471573 7:0.65993655 8:0.74227394 9:0.79604378 
-3 1:0.78809444 2:0.64107966 3:0.63992347 4:0.7199436 5:0.62088963 6:0.32379571 7:0.7319233 8:0.80911202 9:0.8507541 
-3 1:0.79020374 2:0.64886607 3:0.65658527 4:0.7441723 5:0.62088963 6:0.34310279 7:0.77101723 8:0.84821029 9:0.88804124 
3 1:0.81256553 2:0.72058452 3:0.76019587 4:0.81776931 5:0.62088963 6:0.37137625 7:0.81442045 8:0.88205758 9:0.91458769 
3 1:0.81267714 2:0.7363344 3:0.78938843 4:0.84357365 5:0.62088963 6:0.39967717 7:0.85595229 8:0.91574692 9:0.94250595 
3 1:0.85178907 2:0.83352179 3:0.87809607 4:0.90546193 5:0.62088963 6:0.434713 7:0.88766895 8:0.9374168 9:0.95853365 
3 1:0.90076546 2:0.89747505 3:0.93110554 4:0.94574365 5:0.62088963 6:0.46452442 7:0.91824175 8:0.95745095 9:0.97241994 
3 1:0.90484864 2:0.90334647 3:0.93765653 4:0.9538381 5:0.62088963 6:0.48597439 7:0.93053309 8:0.9647571 9:0.97746046 
-3 1:0.77428942 2:0.52733708 3:0.40856875 4:0.57464808 5:0.15953711 6:0.36317685 7:0.68950884 8:0.78239856 9:0.85158746 
-3 1:0.79912416 2:0.6083759 3:0.61542666 4:0.73817085 5:0.15953711 6:0.41418217 7:0.78235658 8:0.86244982 9:0.90555851 
-3 1:0.80035224 2:0.61251568 3:0.6226757 4:0.74694843 5:0.15953711 6:0.42508825 7:0.80053547 8:0.87876294 9:0.92009097 
-3 1:0.83169496 2:0.70223157 3:0.75304348 4:0.8306141 5:0.15953711 6:0.46459592 7:0.85524887 8:0.91515324 9:0.94242931 
3 1:0.83066287 2:0.72261966 3:0.77728258 4:0.84473369 5:0.15953711 6:0.49147499 7:0.88086917 8:0.9319899 9:0.95515785 
3 1:0.88180378 2:0.8557121 3:0.89403968 4:0.91768024 5:0.15953711 6:0.55908699 7:0.92010032 8:0.95523583 9:0.97026042 
3 1:0.93467873 2:0.93697593 3:0.95891634 4:0.96772543 5:0.15953711 6:0.60592148 7:0.94910383 8:0.97388368 9:0.98321738 
3 1:0.66809343 2:0.51543834 3:0.47953612 4:0.53081629 5:0.65543528 6:0.1105369 7:0.53484817 8:0.64893424 9:0.70087418 
3 1:0.67910475 2:0.56946707 3:0.62556484 4:0.67459131 5:0.65543528 6:0.12495962 7:0.58400561 8:0.70635918 9:0.76074473 
3 1:0.6807795 2:0.57578205 3:0.64441321 4:0.70556466 5:0.65543528 6:0.13451819 7:0.6213844 8:0.7495146 9:0.806062 
3 1:0.69597055 2:0.63436617 3:0.73057846 4:0.78342265 5:0.65543528 6:0.14417706 7:0.65373243 8:0.78298929 9:0.83855203 
3 1:0.69392792 2:0.65412246 3:0.76348904 4:0.81682753 5:0.65543528 6:0.15923444 7:0.70074453 8:0.82731767 9:0.87915144 
3 1:0.72752645 2:0.72633839 3:0.83080779 4:0.8780265 5:0.65543528 6:0.17191059 7:0.73024153 8:0.85253415 9:0.90082938 
3 1:0.7667198 2:0.77059861 3:0.87174912 4:0.91381903 5:0.65543528 6:0.19792999 7:0.78521928 8:0.89113094 9:0.92976276 
3 1:0.77663642 2:0.77992974 3:0.88045955 4:0.92203072 5:0.65543528 6:0.21717165 7:0.81133774 8:0.90743803 9:0.94136993 
-3 1:-2.220446e-16 2:0.11955723 3:0.30659493 4:0.53664525 5:0.085951542 6:0.25252042 7:0.49690257 8:0.65769216 9:0.80223073 
-3 1:0.07025999 2:0.29033057 3:0.54610442 4:0.72914994 5:0.085951542 6:0.34502741 7:0.68077008 8:0.81835921 9:0.90302719 
-3 1:0.070487229 2:0.29154406 3:0.54824894 4:0.73088236 5:0.085951542 6:0.35280904 7:0.69186543 8:0.82773057 9:0.91068742 
-3 1:0.16245697 2:0.44205138 3:0.71721017 4:0.83627403 5:0.085951542 6:0.42866478 7:0.81686452 8:0.91192673 9:0.95530559 
-3 1:0.16189899 2:0.47071187 3:0.73904277 4:0.84413611 5:0.085951542 6:0.45592521 7:0.84370892 8:0.92588369 9:0.96391692 
3 1:0.38401117 2:0.75033934 3:0.89654 4:0.93724741 5:0.085951542 6:0.60981304 7:0.95094604 8:0.97756293 9:0.9879707 
-3 1:0.97221915 2:0.99139219 3:0.99727748 4:0.99783101 5:0.085951542 6:0.88719388 7:0.99179217 8:0.99604316 9:0.99746947 
0.57653225636271 1:0.10719326 2:0.1286495 3:0.28302239 4:0.52814121 5:0.029394136 6:0.21781852 7:0.44794963 8:0.63031125 9:0.80683299 
-3 1:0.19345453 2:0.29142692 3:0.54591852 4:0.7254711 5:0.029394136 6:0.31217359 7:0.64691349 8:0.81222895 9:0.91233249 
-3 1:0.30724878 2:0.46000674 3:0.71174991 4:0.82876847 5:0.029394136 6:0.3969515 7:0.78959961 8:0.9063486 9:0.95720755 
3 1:0.5337017 2:0.76032275 3:0.89501308 4:0.93523176 5:0.029394136 6:0.61994617 7:0.94847901 8:0.97833679 9:0.98936321 
-3 1:0.98362312 2:0.99654333 3:0.99900928 4:0.99923906 5:0.029394136 6:0.93628861 7:0.99679023 8:0.99846792 9:0.99903247 
3 1:0.068191924 2:0.15567744 3:0.35972518 4:0.58685077 5:0.26253304 6:0.53747671 7:0.6770993 8:0.78146705 9:0.89438383 
3 1:0.11376409 2:0.31647927 3:0.57718926 4:0.7618452 5:0.26253304 6:0.57154145 7:0.78374976 8:0.88273571 9:0.95231091 
3 1:0.11368492 2:0.31728456 3:0.57865301 4:0.76216094 5:0.26253304 6:0.57217183 7:0.78570799 8:0.88458062 9:0.95371942 
-3 1:0.19992556 2:0.47027555 3:0.73544189 4:0.85618845 5:0.26253304 6:0.60415235 7:0.8670849 8:0.94261136 9:0.97991607 
3 1:0.19963261 2:0.49387225 3:0.75476365 4:0.86531462 5:0.26253304 6:0.61437839 7:0.88329531 8:0.95083788 9:0.98427297 
3 1:0.41416728 2:0.76407924 3:0.90412675 4:0.9460913 5:0.26253304 6:0.70327413 7:0.96928635 8:0.99028582 9:0.99745241 
-3 1:0.99733226 2:0.99893225 3:0.99976891 4:0.99966262 5:0.26253304 6:0.98492973 7:0.9992267 8:0.99963843 9:0.99980117 
-3 1:0.6433707 2:0.57371759 3:0.44350826 4:0.50048504 5:0.14728831 6:0.1234045 7:0.54446011 8:0.67433974 9:0.75364579 
-3 1:0.65091781 2:0.62891197 3:0.61387931 4:0.6617445 5:0.14728831 6:0.14632552 7:0.63327068 8:0.75440617 9:0.81559943 
3 1:0.65201215 2:0.63478884 3:0.62640219 4:0.68786556 5:0.14728831 6:0.15449208 7:0.67157499 8:0.79117935 9:0.84890541 
-3 1:0.66546058 2:0.69456601 3:0.73761224 4:0.77132966 5:0.14728831 6:0.17153704 7:0.72898352 8:0.83464107 9:0.88242096 
3 1:0.66698979 2:0.71089706 3:0.76985302 4:0.79433849 5:0.14728831 6:0.18694259 7:0.77677679 8:0.87086003 9:0.91093956 
3 1:0.69225061 2:0.79196723 3:0.85681189 4:0.8628915 5:0.14728831 6:0.20822784 7:0.81077441 8:0.89482972 9:0.92942639 
3 1:0.74178687 2:0.83501095 3:0.90223143 4:0.91428356 5:0.14728831 6:0.21948417 7:0.84833653 8:0.92213819 9:0.95035966 
-3 1:0.75363381 2:0.84226963 3:0.90842656 4:0.91763814 5:0.14728831 6:0.23204585 7:0.86656018 8:0.93295646 9:0.9578713 
3 1:0.50913663 2:0.36490881 3:0.34188051 4:0.51843661 5:0.14026127 6:0.10126096 7:0.56047331 8:0.68925022 9:0.78221221 
-3 1:0.53279966 2:0.44846676 3:0.55877045 4:0.70258282 5:0.14026127 6:0.13445214 7:0.67918988 8:0.7942022 9:0.85404375 
-3 1:0.53453368 2:0.45381427 3:0.56671271 4:0.71241487 5:0.14026127 6:0.13997561 7:0.70414907 8:0.81793357 9:0.87534627 
3 1:0.57454839 2:0.56056103 3:0.71182075 4:0.80526107 5:0.14026127 6:0.16320592 7:0.77304901 8:0.86505004 9:0.90628023 
3 1:0.57689022 2:0.58757367 3:0.74381214 4:0.82080213 5:0.14026127 6:0.17651218 7:0.80764196 8:0.88905114 9:0.92412782 
3 1:0.66837695 2:0.77574967 3:0.87263085 4:0.89462724 5:0.14026127 6:0.2080322 7:0.8476471 8:0.91409665 9:0.94167274 
3 1:0.80999188 2:0.9068935 3:0.94087342 4:0.94880037 5:0.14026127 6:0.22166069 7:0.87279849 8:0.93343786 9:0.95689295 
2.310010596403921 1:0.81468704 2:0.90996992 3:0.94332969 4:0.9542874 5:0.14026127 6:0.23011491 7:0.88286668 8:0.93993964 9:0.96170244 
-3 1:0.64358047 2:0.56431417 3:0.50734633 4:0.6037955 5:0.19986205 6:0.14383366 7:0.73829184 8:0.8160364 9:0.85595914 
3 1:0.65567027 2:0.62988113 3:0.67297317 4:0.74295991 5:0.19986205 6:0.15679668 7:0.78772483 8:0.86304259 9:0.89601329 
3 1:0.65619654 2:0.63257999 3:0.67948467 4:0.75427977 5:0.19986205 6:0.16041449 7:0.80542845 8:0.87953654 9:0.91128151 
3 1:0.67277722 2:0.69583198 3:0.77758726 4:0.82716259 5:0.19986205 6:0.16788882 7:0.8312799 8:0.90072928 9:0.92855259 
3 1:0.67271656 2:0.71140829 3:0.79970638 4:0.84438843 5:0.19986205 6:0.17570565 7:0.85519748 8:0.91900385 9:0.94337976 
3 1:0.70571696 2:0.80127075 3:0.88190274 4:0.90772862 5:0.19986205 6:0.18525968 7:0.87114896 8:0.93120873 9:0.95345917 
-3 1:0.76121452 2:0.86021064 3:0.92926889 4:0.94818896 5:0.19986205 6:0.19310103 7:0.88843028 8:0.94366176 9:0.96310806 
-3 1:0.76812234 2:0.86435825 3:0.93175542 4:0.95179028 5:0.19986205 6:0.20141253 7:0.89806736 8:0.94947858 9:0.96737576 
-3 1:0.62759231 2:0.55670143 3:0.52284655 4:0.63389021 5:0.038832002 6:0.035254694 7:0.77763857 8:0.87719172 9:0.91955806 
-3 1:0.6416097 2:0.62683294 3:0.68145812 4:0.77409233 5:0.038832002 6:0.050516057 7:0.83305095 8:0.91281069 9:0.94141928 
-3 1:0.64186605 2:0.6276865 3:0.68329672 4:0.77508479 5:0.038832002 6:0.052078806 7:0.83907742 8:0.91704514 9:0.94460753 
-3 1:0.65465047 2:0.70385473 3:0.782578 4:0.84727475 5:0.038832002 6:0.062531836 7:0.8668896 8:0.93227937 9:0.9544546 
-3 1:0.65295763 2:0.71543267 3:0.79796457 4:0.85466581 5:0.038832002 6:0.069071169 7:0.87789693 8:0.93833453 9:0.95877774 
-3 1:0.68471777 2:0.80178393 3:0.88948524 4:0.91921856 5:0.038832002 6:0.082595597 7:0.89034116 8:0.94600755 9:0.96449435 
3 1:0.73729958 2:0.85364962 3:0.9383298 4:0.9615113 5:0.038832002 6:0.090055337 7:0.90364079 8:0.95512657 9:0.97183566 
-3 1:0.74351155 2:0.8569208 3:0.94005607 4:0.96386955 5:0.038832002 6:0.098042004 7:0.90878155 8:0.95787061 9:0.97379306 
3 1:0.39645008 2:0.24897856 3:0.30300868 4:0.53027757 5:0.064303123 6:0.13527448 7:0.48344352 8:0.67518514 9:0.80684485 
3 1:0.43320383 2:0.36352096 3:0.54132547 4:0.71380816 5:0.064303123 6:0.18654363 7:0.6396905 8:0.80095526 9:0.87875497 
3 1:0.43504006 2:0.367899 3:0.54500597 4:0.71753186 5:0.064303123 6:0.19402399 7:0.66197456 8:0.81858026 9:0.89165323 
3 1:0.48867005 2:0.4893851 3:0.70627654 4:0.81100757 5:0.064303123 6:0.24077526 7:0.76540809 8:0.87719765 9:0.92301145 
3 1:0.62663067 2:0.75243882 3:0.87480471 4:0.909782 5:0.064303123 6:0.36006726 7:0.87566017 8:0.93315759 9:0.95814009 
-3 1:0.86263677 2:0.92653973 3:0.9564197 4:0.96864531 5:0.064303123 6:0.42783119 7:0.90982655 8:0.95510913 9:0.97350113 
3 1:0.86905069 2:0.9299828 3:0.95881245 4:0.97012594 5:0.064303123 6:0.44090385 7:0.91717073 8:0.95885496 9:0.97572234 
3 1:0.39656766 2:0.32289482 3:0.33663741 4:0.58343758 5:0.22687834 6:0.37828612 7:0.59284036 8:0.69868148 9:0.76721939 
3 1:0.47206225 2:0.43504053 3:0.57506634 4:0.74652544 5:0.22687834 6:0.43405915 7:0.69545604 8:0.78844501 9:0.83548475 
3 1:0.47381006 2:0.44534514 3:0.5852413 4:0.7671635 5:0.22687834 6:0.45332828 7:0.73365531 8:0.82834212 9:0.87437599 
-1.796772780844733 1:0.49760565 2:0.56446896 3:0.72158234 4:0.84219217 5:0.22687834 6:0.50368118 7:0.80877379 8:0.88125471 9:0.91311767 
3 1:0.50127887 2:0.59257314 3:0.75019612 4:0.86274978 5:0.22687834 6:0.53928926 7:0.85927657 8:0.92157623 9:0.94661491 
3 1:0.66086104 2:0.79606881 3:0.88423883 4:0.93382768 5:0.22687834 6:0.6434251 7:0.92235419 8:0.95594319 9:0.97022011 
3 1:0.95135766 2:0.95933394 3:0.97858673 4:0.98259519 5:0.22687834 6:0.74867075 7:0.96174733 8:0.97865801 9:0.98559036 
-3 1:0.9541309 2:0.9645815 3:0.98242159 4:0.98562148 5:0.22687834 6:0.76761237 7:0.96943718 8:0.9833156 9:0.98886 
3 1:0.098471468 2:0.088096171 3:0.12770566 4:0.30732008 5:0.37637444 6:0.1134503 7:0.1714045 8:0.21015647 9:0.24593954 
-3 1:0.1553538 2:0.19303646 3:0.3466813 4:0.49086688 5:0.37637444 6:0.14082878 7:0.24538979 8:0.29907459 9:0.3385096 
-3 1:0.16499643 2:0.21232725 3:0.39092297 4:0.56061485 5:0.37637444 6:0.16006934 7:0.30349422 8:0.37958673 9:0.43704115 
-3 1:0.21899081 2:0.34893957 3:0.54302056 4:0.65597743 5:0.37637444 6:0.19192637 7:0.37748767 8:0.45920839 9:0.51712574 
-3 1:0.23558685 2:0.39441371 3:0.62522963 4:0.73673175 5:0.37637444 6:0.23713623 7:0.4972889 8:0.59955115 9:0.66639856 
-3 1:0.41651155 2:0.62255489 3:0.77408367 4:0.81774924 5:0.37637444 6:0.31211644 7:0.59455293 8:0.6841248 9:0.74174343 
-3 1:0.75466115 2:0.84620613 3:0.88407804 4:0.89438271 5:0.37637444 6:0.41179721 7:0.7179897 8:0.79723695 9:0.8428619 
3 1:0.33412224 2:0.23736198 3:0.29956112 4:0.53496076 5:0.32132966 6:0.30484095 7:0.50062635 8:0.60759014 9:0.69163162 
-3 1:0.38624874 2:0.33919629 3:0.52509277 4:0.7123395 5:0.32132966 6:0.35108889 7:0.61349554 8:0.71796189 9:0.7818208 
3 1:0.39170391 2:0.35046632 3:0.54880472 4:0.74147412 5:0.32132966 6:0.37319598 7:0.66423905 8:0.77332724 9:0.8353456 
3 1:0.4339005 2:0.48471749 3:0.69451599 4:0.81785814 5:0.32132966 6:0.42426794 7:0.75235249 8:0.83955009 9:0.88310793 
3 1:0.44096717 2:0.51747704 3:0.73621278 4:0.84749564 5:0.32132966 6:0.47070908 7:0.82687556 8:0.90020643 9:0.93312078 
3 1:0.61140119 2:0.73892407 3:0.8757942 4:0.92424165 5:0.32132966 6:0.58573506 7:0.90352623 8:0.94326403 9:0.96180206 
-3 1:0.93478961 2:0.95698439 3:0.96921752 4:0.97762071 5:0.32132966 6:0.73526574 7:0.95321237 8:0.97343123 9:0.98210984 
-3 1:0.944464 2:0.96555443 3:0.97625317 4:0.98423612 5:0.32132966 6:0.76806325 7:0.96602848 8:0.98108503 9:0.98732571 
-3 1:0.11988975 2:0.13409566 3:0.18381248 4:0.36427105 5:0.6185964 6:0.16876021 7:0.25114925 8:0.28759183 9:0.31490194 
-3 1:0.18591062 2:0.2432647 3:0.41643644 4:0.54897247 5:0.6185964 6:0.20391515 7:0.34120457 8:0.39310314 9:0.42440033 
-3 1:0.19422651 2:0.26552742 3:0.46378751 4:0.63773411 5:0.6185964 6:0.2304878 7:0.41232147 8:0.48952147 9:0.54289823 
-3 1:0.24849059 2:0.40601898 3:0.61356632 4:0.73153891 5:0.6185964 6:0.27237048 7:0.50153006 8:0.58096463 9:0.6325802 
-3 1:0.26413695 2:0.44805112 3:0.68727134 4:0.81386172 5:0.6185964 6:0.32696611 7:0.62757118 8:0.72294854 9:0.77900221 
-3 1:0.46817955 2:0.68047012 3:0.83537298 4:0.88619229 5:0.6185964 6:0.42294943 7:0.73414383 8:0.80712397 9:0.84916188 
-3 1:0.86936867 2:0.92554476 3:0.94324944 4:0.95409766 5:0.6185964 6:0.5738338 7:0.84897864 8:0.90027001 9:0.92623902 
-3 1:0.89332133 2:0.9437018 3:0.95951004 4:0.96963395 5:0.6185964 6:0.62991004 7:0.89534764 8:0.93503889 9:0.95375123 
3 1:0.11486228 2:1.110223e-16 3:0.15641376 4:0.4678159 5:0.082560262 6:0.19874936 7:0.40337995 8:0.61274391 9:0.81059895 
3 1:0.22984474 2:0.17534975 3:0.44583114 4:0.68531713 5:0.082560262 6:0.27738977 7:0.60155269 8:0.79900627 9:0.91107838 
3 1:0.23014652 2:0.17638888 3:0.4469124 4:0.68771975 5:0.082560262 6:0.278877 7:0.60612185 8:0.8042709 9:0.91644293 
3 1:0.40387082 2:0.37011289 3:0.64138619 4:0.80572467 5:0.082560262 6:0.36218234 7:0.7572776 8:0.90334009 9:0.95976167 
3 1:0.41418884 2:0.41102213 3:0.669768 4:0.81826871 5:0.082560262 6:0.38762592 7:0.78874114 8:0.91736413 9:0.96694311 
3 1:0.69797327 2:0.74798766 3:0.87312296 4:0.93027909 5:0.082560262 6:0.64450421 7:0.94508079 8:0.97969306 9:0.99102226 
-3 1:0.99376665 2:0.99894435 3:0.99965384 4:0.99964191 5:0.082560262 6:0.97746724 7:0.99901252 8:0.99947599 9:0.99963053 
3 1:0.61775174 2:0.31113672 3:0.22659324 4:0.38294415 5:0.46816013 6:0.13789336 7:0.20301342 8:0.27524646 9:0.35544665 
-3 1:0.65940692 2:0.42568816 3:0.4650782 4:0.58575622 5:0.46816013 6:0.20219955 7:0.32497899 8:0.41564775 9:0.49611213 
-3 1:0.66593076 2:0.44292596 3:0.49755561 4:0.62972773 5:0.46816013 6:0.23196377 7:0.38746822 8:0.49536812 9:0.58549072 
-3 1:0.71597729 2:0.56754311 3:0.65179468 4:0.73579509 5:0.46816013 6:0.28654519 7:0.48528846 8:0.59504433 9:0.67712596 
3 1:0.722179 2:0.61429883 3:0.71161295 4:0.78530451 5:0.46816013 6:0.35909861 7:0.60832297 8:0.72010513 9:0.79414792 
3 1:0.79733943 2:0.79191063 3:0.84496088 4:0.8735538 5:0.46816013 6:0.44536772 7:0.71497426 8:0.80801875 9:0.86447729 
3 1:0.86889923 2:0.89389343 3:0.92318161 4:0.93790613 5:0.46816013 6:0.51887607 7:0.80652673 8:0.88255078 9:0.92186412 
3 1:0.87512698 2:0.90477214 3:0.93428967 4:0.94878241 5:0.46816013 6:0.54907429 7:0.83914553 8:0.90645933 9:0.93960647 
-3 1:0.61979582 2:0.35637172 3:0.30182701 4:0.48512994 5:0.19672319 6:0.293288 7:0.47360828 8:0.59075671 9:0.68128029 
-3 1:0.64810212 2:0.45054681 3:0.52259193 4:0.66484032 5:0.19672319 6:0.3703296 7:0.60851369 8:0.71604819 9:0.78016604 
-3 1:0.65264371 2:0.4639591 3:0.54804836 4:0.69455215 5:0.19672319 6:0.39823994 7:0.65939648 8:0.76826168 9:0.82978862 
-3 1:0.69472838 2:0.5763264 3:0.6919782 4:0.78824767 5:0.19672319 6:0.4657005 7:0.75225267 8:0.83717389 9:0.88159509 
3 1:0.70061726 2:0.61250922 3:0.74123462 4:0.82635463 5:0.19672319 6:0.52516968 7:0.82963387 8:0.89854548 9:0.93102533 
3 1:0.78693936 2:0.7942691 3:0.87125272 4:0.90549849 5:0.19672319 6:0.63112462 7:0.89800536 8:0.9391266 9:0.95853003 
3 1:0.90195331 2:0.92618297 3:0.95111053 4:0.96361141 5:0.19672319 6:0.7013779 7:0.94440841 8:0.96878535 9:0.97882596 
3 1:0.91020597 2:0.93559428 3:0.95870943 4:0.97038239 5:0.19672319 6:0.72446627 7:0.9556569 8:0.97557126 9:0.9835939 
-3 1:0.71647766 2:0.46599722 3:0.41253509 4:0.55240211 5:0.069072755 6:0.35138595 7:0.56659317 8:0.67483977 9:0.76663313 
-3 1:0.73685942 2:0.54793147 3:0.60379781 4:0.72258027 5:0.069072755 6:0.4428228 7:0.71260188 8:0.80516453 9:0.86128419 
-3 1:0.74015323 2:0.55763901 3:0.61969381 4:0.73671403 5:0.069072755 6:0.46673779 7:0.7511693 8:0.83945647 9:0.89013655 
-3 1:0.77133116 2:0.64581271 3:0.74881335 4:0.82315677 5:0.069072755 6:0.5294623 7:0.83293198 8:0.89618351 9:0.92784053 
-3 1:0.77257088 2:0.67552717 3:0.78136304 4:0.84498823 5:0.069072755 6:0.57507879 7:0.87741496 8:0.92642724 9:0.95034457 
3 1:0.84024005 2:0.83610727 3:0.89734652 4:0.92475398 5:0.069072755 6:0.66615697 7:0.9301667 8:0.95852518 9:0.97195912 
3 1:0.9239842 2:0.9422628 3:0.95908328 4:0.97237068 5:0.069072755 6:0.70483064 7:0.95506206 8:0.97471333 9:0.98274369 
3 1:0.92712205 2:0.94609854 3:0.96253858 4:0.97559819 5:0.069072755 6:0.71883836 7:0.9607098 8:0.97811933 9:0.98511993 
-3 1:0.80088058 2:0.626334 3:0.60701334 4:0.69637252 5:0.32024297 6:0.49669683 7:0.67097365 8:0.72838437 9:0.75985141 
3 1:0.80322168 2:0.63472511 3:0.62995422 4:0.72481236 5:0.32024297 6:0.5209952 7:0.71662996 8:0.78064968 9:0.81645496 
3 1:0.82568184 2:0.71385601 3:0.73632859 4:0.8048086 5:0.32024297 6:0.54613649 7:0.75910465 8:0.82175868 9:0.85532683 
3 1:0.82907776 2:0.73712487 3:0.78230543 4:0.84410542 5:0.32024297 6:0.59886932 7:0.83808519 8:0.89334928 9:0.91997068 
3 1:0.87565378 2:0.8520928 3:0.88692336 4:0.91002744 5:0.32024297 6:0.64493763 7:0.885911 8:0.92952703 9:0.94932703 
-3 1:0.93672455 2:0.9392749 3:0.95358881 4:0.96452137 5:0.32024297 6:0.6894327 7:0.93381579 8:0.96303278 9:0.97470928 
-3 1:0.94199468 2:0.94806046 3:0.96236449 4:0.97317867 5:0.32024297 6:0.71440685 7:0.95040249 8:0.9731617 9:0.98194036 
-3 1:0.86403265 2:0.67619816 3:0.51826777 4:0.54646225 5:0.24615236 6:0.69194262 7:0.78256981 8:0.81220811 9:0.82634374 
3 1:0.8765313 2:0.73641356 3:0.68449909 4:0.72327187 5:0.24615236 6:0.74777264 7:0.86204285 8:0.89428834 9:0.90965496 
3 1:0.89112226 2:0.79432944 3:0.77665823 4:0.80611369 5:0.24615236 6:0.77508325 7:0.89690231 8:0.92487887 9:0.93740711 
3 1:0.89325361 2:0.81119148 3:0.81511853 4:0.84617798 5:0.24615236 6:0.81167047 7:0.93470592 8:0.95598769 9:0.96484229 
3 1:0.9227076 2:0.89478037 3:0.90176374 4:0.91236732 5:0.24615236 6:0.84360425 7:0.95907219 8:0.97354245 9:0.97941481 
3 1:0.95973145 2:0.96022214 3:0.96319013 4:0.96896545 5:0.24615236 6:0.8667116 7:0.97955328 8:0.98803326 9:0.99122772 
3 1:0.96331112 2:0.96681281 3:0.97141503 4:0.97724327 5:0.24615236 6:0.87923993 7:0.9851486 8:0.99149034 9:0.99380933 
-3 1:0.82563612 2:0.63331539 3:0.53672291 4:0.6317439 5:0.024838178 6:0.51468613 7:0.79483202 8:0.88321841 9:0.92630594 
-3 1:0.83802583 2:0.68777418 3:0.68749475 4:0.77222473 5:0.024838178 6:0.57292054 7:0.86925517 8:0.9306127 9:0.95516447 
-3 1:0.83855443 2:0.68985151 3:0.69136269 4:0.77713614 5:0.024838178 6:0.58011542 7:0.8771701 8:0.93607325 9:0.95944637 
-3 1:0.85688472 2:0.75451741 3:0.7953313 4:0.85355635 5:0.024838178 6:0.62296902 7:0.91969545 8:0.95796187 9:0.9726877 
-3 1:0.85770371 2:0.77038338 3:0.81549402 4:0.86590019 5:0.024838178 6:0.64608341 7:0.93262656 8:0.96479774 9:0.97786515 
3 1:0.89485979 2:0.88149045 3:0.91228809 4:0.9335683 5:0.024838178 6:0.7139631 7:0.96316844 8:0.98069466 9:0.98772078 
-3 1:0.94783408 2:0.95530494 3:0.96384704 4:0.97633042 5:0.024838178 6:0.74812803 7:0.98152163 8:0.99071402 9:0.99378997 
-3 1:0.94933424 2:0.95721845 3:0.96588815 4:0.97843883 5:0.024838178 6:0.75624709 7:0.98314585 8:0.99163327 9:0.99445767 
-3 1:0.74722933 2:0.47157125 3:0.39660945 4:0.50545591 5:0.61535279 6:0.28650746 7:0.44032898 8:0.49893985 9:0.5361672 
-3 1:0.77095408 2:0.55853494 3:0.58082238 4:0.65578833 5:0.61535279 6:0.34170268 7:0.53406375 8:0.59898701 9:0.63557048 
-3 1:0.77641883 2:0.57459951 3:0.61122576 4:0.70266331 5:0.61535279 6:0.37674746 7:0.60057964 8:0.67619992 9:0.7201709 
-3 1:0.80780265 2:0.66706727 3:0.73075189 4:0.78289376 5:0.61535279 6:0.42815937 7:0.67827668 8:0.74901015 9:0.78847355 
3 1:0.8144117 2:0.69993252 3:0.7769039 4:0.82874013 5:0.61535279 6:0.49221595 7:0.77578768 8:0.84176252 9:0.87579094 
-3 1:0.86311911 2:0.83378986 3:0.87763529 4:0.89920674 5:0.61535279 6:0.55938162 7:0.84103577 8:0.89259055 9:0.91839592 
-3 1:0.91818583 2:0.92500871 3:0.94645086 4:0.95965508 5:0.61535279 6:0.60300938 7:0.90236362 8:0.94024613 9:0.95680314 
-3 1:0.85074896 2:0.6994714 3:0.58943971 4:0.64801966 6:0.56829088 7:0.86215031 8:0.9161246 9:0.93851942 
-3 1:0.85711023 2:0.73088803 3:0.71715586 4:0.77465504 6:0.61048799 7:0.912055 8:0.94943256 9:0.96141601 
-3 1:0.85762909 2:0.73335331 3:0.72310273 4:0.7799658 6:0.6165352 7:0.91721785 8:0.95283708 9:0.96443744 
-3 1:0.87124075 2:0.78275918 3:0.81114148 4:0.84815338 6:0.65088428 7:0.94571519 8:0.96911236 9:0.97600015 
-3 1:0.8720121 2:0.79577239 3:0.83181319 4:0.86452904 6:0.66893175 7:0.95471377 8:0.97396015 9:0.97998475 
3 1:0.90419379 2:0.89011361 3:0.91517024 4:0.92626124 6:0.72620753 7:0.97495671 8:0.98604069 9:0.98960254 
3 1:0.95312756 2:0.95741446 3:0.9583537 4:0.96426245 6:0.75061457 7:0.98615288 8:0.99340895 9:0.99571298 
-1.203227219155266 1:0.95441719 2:0.95880729 3:0.96046913 4:0.96716234 6:0.75899387 7:0.9874388 8:0.99407867 9:0.99620562 
3 1:0.57675916 2:0.27901508 3:0.11986258 4:0.074107821 5:1 6:0.11725755 7:0.13109206 8:0.11805876 9:0.087061255 
3 1:0.60202761 2:0.36314236 3:0.31596161 4:0.27945439 5:1 6:0.14636402 7:0.19587094 8:0.20760047 9:0.20244647 
-3 1:0.61015071 2:0.38750147 3:0.37628841 4:0.39382485 5:1 6:0.1767599 7:0.26323657 8:0.30259857 9:0.32806389 
-3 1:0.65229539 2:0.49464168 3:0.51437704 4:0.51495572 5:1 6:0.21026336 7:0.33537274 8:0.39177938 9:0.43265356 
-3 1:0.66777055 2:0.54633273 3:0.62495651 4:0.64933423 5:1 6:0.28200994 7:0.47995257 8:0.56625686 9:0.62858662 
-3 1:0.75997428 2:0.72130811 3:0.76535892 4:0.75101179 5:1 6:0.35302778 7:0.59254138 8:0.68185162 9:0.74324237 
3 1:0.8802743 2:0.8817 3:0.90242453 4:0.90023666 5:1 6:0.48241309 7:0.80699066 8:0.87796617 9:0.91439679 
3 1:1 2:1 3:1 4:1 5:0.019471757 6:0.99999941 7:0.99999581 8:0.99999494 9:0.99999588 
-3 1:1 2:1 3:1 4:1 5:0.57184837 6:1 7:0.99999955 8:0.99999919 9:0.99999875 
-3 1:1 2:1 3:1 4:1 5:0.73894864 6:0.99999938 7:0.99999806 8:0.99999695 9:0.99999628 
-3 1:1 2:1 3:1 4:1 5:0.53762161 6:0.99999853 7:0.99999634 8:0.99999465 9:0.99999298 
-3 1:1 2:1 3:1 4:1 5:0.77320758 6:1 7:0.99999954 8:0.99999896 9:0.99999866 
-3 1:0.23925346 2:0.19561705 3:0.24565358 4:0.4842903 5:0.26788107 6:0.14880922 7:0.39723987 8:0.55093375 9:0.66454564 
-3 1:0.28010063 2:0.30661581 3:0.47189524 4:0.6581431 5:0.26788107 6:0.19722083 7:0.5371279 8:0.68388178 9:0.76682209 
-3 1:0.28249029 2:0.31381005 3:0.49291199 4:0.68950003 5:0.26788107 6:0.22024381 7:0.59921561 8:0.74853041 9:0.82643946 
-3 1:0.348289 2:0.46345464 3:0.67983226 4:0.78859663 5:0.26788107 6:0.27642234 7:0.71410973 8:0.82265451 9:0.87404576 
3 1:0.35236971 2:0.47574868 3:0.70079058 4:0.81970523 5:0.26788107 6:0.31893108 7:0.79653791 8:0.88902566 9:0.92720972 
3 1:0.52158741 2:0.73100854 3:0.86317512 4:0.90930757 5:0.26788107 6:0.44247428 7:0.89218388 8:0.93823652 9:0.958095 
3 1:0.52577191 2:0.7388945 3:0.87177449 4:0.92055697 5:0.26788107 6:0.47413286 7:0.9209548 8:0.95660608 9:0.97126882 
-3 1:0.89797354 2:0.93166836 3:0.94807351 4:0.9533375 5:0.26788107 6:0.58448631 7:0.90977534 8:0.94729792 9:0.96305619 
3 1:0.90634251 2:0.93923313 3:0.95382312 4:0.95993176 5:0.26788107 6:0.61289723 7:0.92353134 8:0.95596799 9:0.96933369 
-3 1:0.92437892 2:0.95293987 3:0.96646018 4:0.97250823 5:0.26788107 6:0.67730289 7:0.94858746 8:0.971182 9:0.98014637 
-3 1:0.63505005 2:0.43883784 3:0.40627829 4:0.58646093 5:0.019471757 6:0.38836432 7:0.75826367 8:0.84406611 9:0.8950845 
-3 1:0.63561567 2:0.44116165 3:0.41269895 4:0.59491169 5:0.019471757 6:0.40192594 7:0.78307203 8:0.86525376 9:0.91252592 
-3 1:0.6596637 2:0.54131903 3:0.6019355 4:0.74614239 5:0.019471757 6:0.42522248 7:0.83309072 8:0.9015331 9:0.93405056 
-3 1:0.66033755 2:0.54353776 3:0.60698027 4:0.75072 5:0.019471757 6:0.43752203 7:0.85257102 8:0.91574692 9:0.94460468 
-3 1:0.69342196 2:0.64880261 3:0.76292544 4:0.84184546 5:0.019471757 6:0.45461108 7:0.88191736 8:0.93215883 9:0.95417317 
-3 1:0.76396987 2:0.82041152 3:0.889711 4:0.9175324 5:0.019471757 6:0.48207151 7:0.90715174 8:0.94706047 9:0.96487306 
3 1:0.8797581 2:0.94221837 3:0.95882588 4:0.96665301 5:0.019471757 6:0.49883369 7:0.92306074 8:0.95785569 9:0.97233837 
-3 1:0.89167872 2:0.95049955 3:0.96653327 4:0.9737523 5:0.019471757 6:0.52021385 7:0.94257662 8:0.9705313 9:0.98157251 
3 1:0.15928748 2:0.038195437 3:-1.110223e-16 4:0.035048243 5:0.57184837 6:-1.3877788e-17 9:1.110223e-16 
-3 1:0.29703259 2:0.35136372 3:0.58029541 4:0.65199062 5:0.57184837 6:0.12857962 7:0.40136245 8:0.52639576 9:0.61154432 
-3 1:0.63962011 2:0.72051247 3:0.77296581 4:0.75171026 5:0.57184837 6:0.18413984 7:0.49865911 8:0.61041915 9:0.68222308 
-3 1:0.68339237 2:0.77358089 3:0.82681404 4:0.81649142 5:0.57184837 6:0.23733669 7:0.60531342 8:0.71438892 9:0.7783016 
-3 1:0.71779998 2:0.81258178 3:0.86315776 4:0.85869802 5:0.57184837 6:0.28558255 7:0.68675237 8:0.78660751 9:0.84081149 
3 1:0.75397213 2:0.84881454 3:0.89480551 4:0.89544682 5:0.57184837 6:0.34090583 7:0.76416994 8:0.84941538 9:0.89195688 
-3 1:0.80052777 2:0.88973926 3:0.92792259 4:0.93360671 5:0.57184837 6:0.42007767 7:0.84854376 8:0.91085624 9:0.93875611 
3 1:0.57392628 2:0.28839512 3:0.14179263 4:0.18018506 5:0.73894864 6:0.10791328 7:0.14680166 8:0.16845246 9:0.17979277 
-3 1:0.6008964 2:0.38483193 3:0.39628798 4:0.48747253 5:0.73894864 6:0.16953354 7:0.29339262 8:0.37053249 9:0.42928884 
3 1:0.64931866 2:0.54197798 3:0.65531923 4:0.72028738 5:0.73894864 6:0.28650909 7:0.54325111 8:0.6530361 9:0.72252556 
1.140537860979062 1:0.72134492 2:0.70074139 3:0.7606948 4:0.77087602 5:0.73894864 6:0.31990597 7:0.58267573 8:0.68446817 9:0.74947403 
3 1:0.8394557 2:0.83610724 3:0.85944135 4:0.86834272 5:0.73894864 6:0.40217349 7:0.72326261 8:0.81343083 9:0.86237362 
3 1:0.8617087 2:0.86982155 3:0.89572823 4:0.90791024 5:0.73894864 6:0.46813321 7:0.80366202 8:0.87757181 9:0.91422945 
3 1:0.87955779 2:0.89439972 3:0.92070871 4:0.93311711 5:0.73894864 6:0.5258381 7:0.85994289 8:0.91777986 9:0.94444254 
3 1:0.53975774 2:0.31992026 3:0.11110997 5:0.50537433 6:0.088546002 7:0.084891185 8:0.0637098 9:0.018499328 
3 1:0.59811989 2:0.48223704 3:0.47304843 4:0.44964391 5:0.50537433 6:0.16931434 7:0.27746261 8:0.32957915 9:0.36452615 
3 1:0.67147865 2:0.59930302 3:0.5870956 4:0.55410179 5:0.50537433 6:0.20775123 7:0.35490074 8:0.42421162 9:0.47398092 
3 1:0.73578678 2:0.66090225 3:0.63012563 4:0.60133658 5:0.50537433 6:0.21359362 7:0.3882347 8:0.46552185 9:0.51658228 
3 1:0.68598304 2:0.63264543 3:0.64436368 4:0.63299184 5:0.50537433 6:0.24532274 7:0.43370746 8:0.51906029 9:0.58093829 
3 1:0.75770491 2:0.69942376 3:0.6886145 4:0.67874275 5:0.50537433 6:0.25117123 7:0.46847962 8:0.55943079 9:0.61867507 
3 1:0.79903143 2:0.77025272 3:0.78574037 4:0.79435668 5:0.50537433 6:0.33630575 7:0.62989232 8:0.72893565 9:0.7864562 
3 1:0.83380071 2:0.82508845 3:0.85099023 4:0.86483307 5:0.50537433 6:0.41612161 7:0.75124892 8:0.83579143 9:0.87875657 
3 1:0.85959912 2:0.86155685 3:0.88985066 4:0.90210526 5:0.50537433 6:0.48012003 7:0.82547847 8:0.89218414 9:0.92303987 
3 1:0.47355918 2:0.23234833 3:0.19019287 4:0.4002864 5:0.53762161 6:0.25388284 7:0.42468318 8:0.52818092 9:0.61044487 
3 1:0.52228443 2:0.37904323 3:0.47419533 4:0.65719718 5:0.53762161 6:0.33757357 7:0.61717325 8:0.73687091 9:0.80630622 
3 1:0.5707064 2:0.51378534 3:0.65051434 4:0.74692278 5:0.53762161 6:0.35302049 7:0.63336843 8:0.735275 9:0.79288116 
3 1:0.58850956 2:0.56124616 3:0.70740569 4:0.81568883 5:0.53762161 6:0.4646298 7:0.82460708 8:0.90086296 9:0.93411735 
-3 1:0.84172111 2:0.89918471 3:0.93841076 4:0.94426093 5:0.53762161 6:0.55750657 7:0.87351756 8:0.92517595 9:0.94832034 
-3 1:0.92326737 2:0.96617432 3:0.98326519 4:0.98547117 5:0.53762161 6:0.76920071 7:0.97447945 8:0.98666074 9:0.99114204 
3 1:0.29544355 2:0.16098333 3:0.22030587 4:0.43325328 5:0.21946614 6:0.044665086 7:0.39766706 8:0.56732679 9:0.70652029 
-3 1:0.34338079 2:0.29119492 3:0.48908064 4:0.66237178 5:0.21946614 6:0.096622258 7:0.59717884 8:0.75893397 9:0.84265881 
-3 1:0.40332789 2:0.43249073 3:0.6784364 4:0.75830512 5:0.21946614 6:0.13297748 7:0.68083636 8:0.80204177 9:0.86083389 
-3 1:0.41657396 2:0.45656123 3:0.70021617 4:0.79183369 5:0.21946614 6:0.1618655 7:0.7793692 8:0.88146282 9:0.92299096 
3 1:0.5730653 2:0.71940961 3:0.86294983 4:0.89152387 5:0.21946614 6:0.25145788 7:0.86353425 8:0.92242849 9:0.94817193 
3 1:0.57761434 2:0.7234791 3:0.86543255 4:0.89610713 5:0.21946614 6:0.26005162 7:0.87688414 8:0.93121025 9:0.95449859 
3 1:0.81467479 2:0.91286096 3:0.94890102 4:0.95802896 5:0.21946614 6:0.31261694 7:0.90736466 8:0.95137802 9:0.96852605 
3 1:0.21027778 2:0.11124651 3:0.036665214 4:0.085763152 5:0.77320758 6:0.0034208962 7:0.06559568 8:0.088072241 9:0.10111808 
-3 1:0.30674907 2:0.35352952 3:0.4955494 4:0.50043527 5:0.77320758 6:0.061536675 7:0.2856579 8:0.37684597 9:0.44080203 
3 1:0.45069473 2:0.5905572 3:0.70208909 4:0.6768092 5:0.77320758 6:0.1278093 7:0.46795261 8:0.5773817 9:0.64923091 
3 1:0.46965576 2:0.62251258 3:0.7436655 4:0.73447234 5:0.77320758 6:0.15711012 7:0.55134414 8:0.66305242 9:0.7318613 
-3 1:0.6792674 2:0.77655214 3:0.81785727 4:0.7833511 5:0.77320758 6:0.1787315 7:0.59206602 8:0.70160466 9:0.76500326 
3 1:0.71840792 2:0.81865909 3:0.85836477 4:0.83715056 5:0.77320758 6:0.22057656 7:0.68154537 8:0.78312763 9:0.83712647 
3 1:0.74929368 2:0.8496628 3:0.88733986 4:0.87364272 5:0.77320758 6:0.25845159 7:0.75095697 8:0.84062673 9:0.8848643 
-3 1:0.8140996 2:0.90416129 3:0.93455151 4:0.93479288 5:0.77320758 6:0.34967307 7:0.87263675 8:0.92874272 9:0.95245031 
-3 1:0.83392861 2:0.9181883 3:0.94687838 4:0.94896045 5:0.77320758 6:0.38363164 7:0.90195366 8:0.94721311 9:0.96546564 
-3 1:0.83031644 2:0.63602692 3:0.48684131 4:0.50637141 5:0.46663061 6:0.30613855 7:0.5501884 8:0.63507418 9:0.69921871 
-3 1:0.84592 2:0.71992431 3:0.66706261 4:0.69428872 5:0.46663061 6:0.39213386 7:0.69127321 8:0.77191106 9:0.82345762 
-3 1:0.85753292 2:0.78777179 3:0.77101332 4:0.77778162 5:0.46663061 6:0.43249652 7:0.7471404 8:0.81818547 9:0.86246211 
-3 1:0.86140923 2:0.80333896 3:0.80311497 4:0.82633951 5:0.46663061 6:0.49339103 7:0.82858559 8:0.8857902 9:0.91928407 
-3 1:0.88547571 2:0.87857839 3:0.88185205 4:0.89080162 5:0.46663061 6:0.54288529 7:0.87835745 8:0.92321476 9:0.94810517 
